<?xml version="1.0"?>
<opencv_storage>
<cascade>
  <stageType>BOOST</stageType>
  <featureType>HAAR</featureType>
  <height>24</height>
  <width>24</width>
  <stageParams>
    <boostType>DAB</boostType>
    <minHitRate>9.9900001287460327e-01</minHitRate>
    <maxFalseAlarm>5.0000000000000000e-01</maxFalseAlarm>
    <weightTrimRate>9.4999999999999996e-01</weightTrimRate>
    <maxDepth>1</maxDepth>
    <maxWeakCount>100</maxWeakCount></stageParams>
  <featureParams>
    <maxCatCount>0</maxCatCount>
    <featSize>1</featSize>
    <mode>ALL</mode></featureParams>
  <stageNum>5</stageNum>
  <stages>
    <!-- stage 0 -->
    <_>
      <maxWeakCount>1</maxWeakCount>
      <stageThreshold>8.0060338973999023e+00</stageThreshold>
      <weakClassifiers>
        <_>
          <internalNodes>
            0 -1 0 1.2565819779410958e-03</internalNodes>
          <leafValues>
            -8.0060338973999023e+00 8.0060338973999023e+00</leafValues></_></weakClassifiers></_>
    <!-- stage 1 -->
    <_>
      <maxWeakCount>1</maxWeakCount>
      <stageThreshold>6.6187391281127930e+00</stageThreshold>
      <weakClassifiers>
        <_>
          <internalNodes>
            0 -1 7 7.6749565778300166e-04</internalNodes>
          <leafValues>
            -6.6187391281127930e+00 6.6187391281127930e+00</leafValues></_></weakClassifiers></_>
    <!-- stage 2 -->
    <_>
      <maxWeakCount>2</maxWeakCount>
      <stageThreshold>-3.2538402825593948e-02</stageThreshold>
      <weakClassifiers>
        <_>
          <internalNodes>
            0 -1 5 4.7264164313673973e-03</internalNodes>
          <leafValues>
            -5.0555748939514160e+00 5.0555748939514160e+00</leafValues></_>
        <_>
          <internalNodes>
            0 -1 3 1.2998291640542448e-04</internalNodes>
          <leafValues>
            -5.0230364799499512e+00 5.0230364799499512e+00</leafValues></_></weakClassifiers></_>
    <!-- stage 3 -->
    <_>
      <maxWeakCount>2</maxWeakCount>
      <stageThreshold>-1.0618299245834351e-01</stageThreshold>
      <weakClassifiers>
        <_>
          <internalNodes>
            0 -1 2 1.0648277588188648e-02</internalNodes>
          <leafValues>
            -4.5299077033996582e+00 4.5299077033996582e+00</leafValues></_>
        <_>
          <internalNodes>
            0 -1 6 -6.2155231833457947e-02</internalNodes>
          <leafValues>
            4.6360907554626465e+00 -4.6360907554626465e+00</leafValues></_></weakClassifiers></_>
    <!-- stage 4 -->
    <_>
      <maxWeakCount>2</maxWeakCount>
      <stageThreshold>-7.2122991085052490e-01</stageThreshold>
      <weakClassifiers>
        <_>
          <internalNodes>
            0 -1 1 3.0742168426513672e-02</internalNodes>
          <leafValues>
            -4.6647858619689941e+00 4.6647858619689941e+00</leafValues></_>
        <_>
          <internalNodes>
            0 -1 4 -2.8383967219269834e-05</internalNodes>
          <leafValues>
            3.9435560703277588e+00 -3.9435560703277588e+00</leafValues></_></weakClassifiers></_></stages>
  <features>
    <_>
      <rects>
        <_>
          3 10 4 1 -1.</_>
        <_>
          3 10 2 1 2.</_></rects>
      <tilted>1</tilted></_>
    <_>
      <rects>
        <_>
          4 2 4 8 -1.</_>
        <_>
          4 2 2 4 2.</_>
        <_>
          6 6 2 4 2.</_></rects>
      <tilted>0</tilted></_>
    <_>
      <rects>
        <_>
          8 12 2 2 -1.</_>
        <_>
          8 12 2 1 2.</_></rects>
      <tilted>1</tilted></_>
    <_>
      <rects>
        <_>
          8 15 2 6 -1.</_>
        <_>
          8 17 2 2 2.</_></rects>
      <tilted>0</tilted></_>
    <_>
      <rects>
        <_>
          12 1 2 2 -1.</_>
        <_>
          12 1 1 1 2.</_>
        <_>
          13 2 1 1 2.</_></rects>
      <tilted>0</tilted></_>
    <_>
      <rects>
        <_>
          15 7 1 6 -1.</_>
        <_>
          15 9 1 2 2.</_></rects>
      <tilted>0</tilted></_>
    <_>
      <rects>
        <_>
          16 9 6 12 -1.</_>
        <_>
          16 9 3 6 2.</_>
        <_>
          19 15 3 6 2.</_></rects>
      <tilted>0</tilted></_>
    <_>
      <rects>
        <_>
          20 6 1 12 -1.</_>
        <_>
          20 10 1 4 2.</_></rects>
      <tilted>0</tilted></_></features></cascade>
</opencv_storage>
