<?xml version="1.0"?>
<opencv_storage>
<cascade>
  <stageType>BOOST</stageType>
  <featureType>HAAR</featureType>
  <height>24</height>
  <width>24</width>
  <stageParams>
    <boostType>DAB</boostType>
    <minHitRate>9.9500000476837158e-01</minHitRate>
    <maxFalseAlarm>5.0000000000000000e-01</maxFalseAlarm>
    <weightTrimRate>9.4999999999999996e-01</weightTrimRate>
    <maxDepth>1</maxDepth>
    <maxWeakCount>100</maxWeakCount></stageParams>
  <featureParams>
    <maxCatCount>0</maxCatCount>
    <featSize>1</featSize>
    <mode>ALL</mode></featureParams>
  <stageNum>4</stageNum>
  <stages>
    <!-- stage 0 -->
    <_>
      <maxWeakCount>1</maxWeakCount>
      <stageThreshold>7.6492161750793457e+00</stageThreshold>
      <weakClassifiers>
        <_>
          <internalNodes>
            0 -1 5 1.5616293065249920e-02</internalNodes>
          <leafValues>
            -7.6492161750793457e+00 7.6492161750793457e+00</leafValues></_></weakClassifiers></_>
    <!-- stage 1 -->
    <_>
      <maxWeakCount>2</maxWeakCount>
      <stageThreshold>-8.1593744456768036e-02</stageThreshold>
      <weakClassifiers>
        <_>
          <internalNodes>
            0 -1 2 1.3950266875326633e-02</internalNodes>
          <leafValues>
            -6.5496506690979004e+00 6.5496506690979004e+00</leafValues></_>
        <_>
          <internalNodes>
            0 -1 0 2.2123742848634720e-02</internalNodes>
          <leafValues>
            -6.4680571556091309e+00 6.4680571556091309e+00</leafValues></_></weakClassifiers></_>
    <!-- stage 2 -->
    <_>
      <maxWeakCount>2</maxWeakCount>
      <stageThreshold>-1.1834893226623535e+00</stageThreshold>
      <weakClassifiers>
        <_>
          <internalNodes>
            0 -1 1 8.6831469088792801e-03</internalNodes>
          <leafValues>
            -4.6194577217102051e+00 4.6194577217102051e+00</leafValues></_>
        <_>
          <internalNodes>
            0 -1 3 -1.0630745440721512e-02</internalNodes>
          <leafValues>
            3.4359686374664307e+00 -3.4359686374664307e+00</leafValues></_></weakClassifiers></_>
    <!-- stage 3 -->
    <_>
      <maxWeakCount>2</maxWeakCount>
      <stageThreshold>-1.3719207048416138e+00</stageThreshold>
      <weakClassifiers>
        <_>
          <internalNodes>
            0 -1 0 4.2676702141761780e-02</internalNodes>
          <leafValues>
            -4.1845912933349609e+00 4.1845912933349609e+00</leafValues></_>
        <_>
          <internalNodes>
            0 -1 4 -1.2845471792388707e-04</internalNodes>
          <leafValues>
            2.8126707077026367e+00 -2.8126707077026367e+00</leafValues></_></weakClassifiers></_></stages>
  <features>
    <_>
      <rects>
        <_>
          4 10 3 2 -1.</_>
        <_>
          5 11 1 2 3.</_></rects>
      <tilted>1</tilted></_>
    <_>
      <rects>
        <_>
          11 20 6 3 -1.</_>
        <_>
          13 20 2 3 2.</_></rects>
      <tilted>0</tilted></_>
    <_>
      <rects>
        <_>
          12 0 2 6 -1.</_>
        <_>
          12 2 2 2 2.</_></rects>
      <tilted>0</tilted></_>
    <_>
      <rects>
        <_>
          13 2 2 2 -1.</_>
        <_>
          14 2 1 2 2.</_></rects>
      <tilted>0</tilted></_>
    <_>
      <rects>
        <_>
          13 21 2 2 -1.</_>
        <_>
          13 21 1 1 2.</_>
        <_>
          14 22 1 1 2.</_></rects>
      <tilted>0</tilted></_>
    <_>
      <rects>
        <_>
          18 3 3 3 -1.</_>
        <_>
          19 4 1 1 9.</_></rects>
      <tilted>0</tilted></_></features></cascade>
</opencv_storage>
