<?xml version="1.0"?>
<opencv_storage>
<cascade>
  <stageType>BOOST</stageType>
  <featureType>HAAR</featureType>
  <height>24</height>
  <width>24</width>
  <stageParams>
    <boostType>DAB</boostType>
    <minHitRate>9.9500000476837158e-01</minHitRate>
    <maxFalseAlarm>5.0000000000000000e-01</maxFalseAlarm>
    <weightTrimRate>9.4999999999999996e-01</weightTrimRate>
    <maxDepth>1</maxDepth>
    <maxWeakCount>100</maxWeakCount></stageParams>
  <featureParams>
    <maxCatCount>0</maxCatCount>
    <featSize>1</featSize>
    <mode>ALL</mode></featureParams>
  <stageNum>4</stageNum>
  <stages>
    <!-- stage 0 -->
    <_>
      <maxWeakCount>1</maxWeakCount>
      <stageThreshold>1.1512915611267090e+01</stageThreshold>
      <weakClassifiers>
        <_>
          <internalNodes>
            0 -1 0 -1.9288462400436401e-01</internalNodes>
          <leafValues>
            1.1512915611267090e+01 -1.1512915611267090e+01</leafValues></_></weakClassifiers></_>
    <!-- stage 1 -->
    <_>
      <maxWeakCount>1</maxWeakCount>
      <stageThreshold>6.5007891654968262e+00</stageThreshold>
      <weakClassifiers>
        <_>
          <internalNodes>
            0 -1 5 2.7523815631866455e-02</internalNodes>
          <leafValues>
            -6.5007891654968262e+00 6.5007891654968262e+00</leafValues></_></weakClassifiers></_>
    <!-- stage 2 -->
    <_>
      <maxWeakCount>2</maxWeakCount>
      <stageThreshold>-6.8583285808563232e-01</stageThreshold>
      <weakClassifiers>
        <_>
          <internalNodes>
            0 -1 3 -4.0402468293905258e-02</internalNodes>
          <leafValues>
            5.5748343467712402e+00 -5.5748343467712402e+00</leafValues></_>
        <_>
          <internalNodes>
            0 -1 4 -3.0684402212500572e-02</internalNodes>
          <leafValues>
            4.8890013694763184e+00 -4.8890013694763184e+00</leafValues></_></weakClassifiers></_>
    <!-- stage 3 -->
    <_>
      <maxWeakCount>2</maxWeakCount>
      <stageThreshold>-2.3819758892059326e+00</stageThreshold>
      <weakClassifiers>
        <_>
          <internalNodes>
            0 -1 2 -1.3157480955123901e-01</internalNodes>
          <leafValues>
            5.4631624221801758e+00 -5.4631624221801758e+00</leafValues></_>
        <_>
          <internalNodes>
            0 -1 1 3.7252917536534369e-04</internalNodes>
          <leafValues>
            -3.0811867713928223e+00 3.0811867713928223e+00</leafValues></_></weakClassifiers></_></stages>
  <features>
    <_>
      <rects>
        <_>
          1 6 17 15 -1.</_>
        <_>
          1 11 17 5 2.</_></rects>
      <tilted>0</tilted></_>
    <_>
      <rects>
        <_>
          1 16 9 7 -1.</_>
        <_>
          4 16 3 7 2.</_></rects>
      <tilted>0</tilted></_>
    <_>
      <rects>
        <_>
          4 8 8 12 -1.</_>
        <_>
          4 11 8 6 2.</_></rects>
      <tilted>0</tilted></_>
    <_>
      <rects>
        <_>
          4 17 8 4 -1.</_>
        <_>
          4 17 4 2 2.</_>
        <_>
          8 19 4 2 2.</_></rects>
      <tilted>0</tilted></_>
    <_>
      <rects>
        <_>
          8 7 6 2 -1.</_>
        <_>
          10 7 2 2 2.</_></rects>
      <tilted>0</tilted></_>
    <_>
      <rects>
        <_>
          11 2 12 3 -1.</_>
        <_>
          15 2 4 3 2.</_></rects>
      <tilted>0</tilted></_></features></cascade>
</opencv_storage>
