<?xml version="1.0"?>
<opencv_storage>
<stage2>
  <maxWeakCount>8</maxWeakCount>
  <stageThreshold>-2.7848558425903320e+00</stageThreshold>
  <weakClassifiers>
    <_>
      <internalNodes>
        0 -1 184805 1.5448469202965498e-03</internalNodes>
      <leafValues>
        -1.3194543123245239e+00 1.3194543123245239e+00</leafValues></_>
    <_>
      <internalNodes>
        0 -1 219555 -7.1773030795156956e-03</internalNodes>
      <leafValues>
        1.1846419572830200e+00 -1.1846419572830200e+00</leafValues></_>
    <_>
      <internalNodes>
        0 -1 9026 3.9463522844016552e-03</internalNodes>
      <leafValues>
        -1.1173744201660156e+00 1.1173744201660156e+00</leafValues></_>
    <_>
      <internalNodes>
        0 -1 138007 -6.5075918100774288e-03</internalNodes>
      <leafValues>
        8.9927995204925537e-01 -8.9927995204925537e-01</leafValues></_>
    <_>
      <internalNodes>
        0 -1 176840 4.3619056232273579e-03</internalNodes>
      <leafValues>
        -9.4124925136566162e-01 9.4124925136566162e-01</leafValues></_>
    <_>
      <internalNodes>
        0 -1 121896 -5.9925504028797150e-03</internalNodes>
      <leafValues>
        9.1271227598190308e-01 -9.1271227598190308e-01</leafValues></_>
    <_>
      <internalNodes>
        0 -1 143379 -3.0440560076385736e-03</internalNodes>
      <leafValues>
        9.1296720504760742e-01 -9.1296720504760742e-01</leafValues></_>
    <_>
      <internalNodes>
        0 -1 126481 -4.0794275701045990e-02</internalNodes>
      <leafValues>
        -7.9490065574645996e-01 7.9490065574645996e-01</leafValues></_></weakClassifiers></stage2>
</opencv_storage>
