<?xml version="1.0"?>
<opencv_storage>
<stage4>
  <maxWeakCount>13</maxWeakCount>
  <stageThreshold>-3.0033347606658936e+00</stageThreshold>
  <weakClassifiers>
    <_>
      <internalNodes>
        0 -1 184956 2.5376025587320328e-03</internalNodes>
      <leafValues>
        -1.2263654470443726e+00 1.2263654470443726e+00</leafValues></_>
    <_>
      <internalNodes>
        0 -1 229374 -6.7303702235221863e-03</internalNodes>
      <leafValues>
        8.8758480548858643e-01 -8.8758480548858643e-01</leafValues></_>
    <_>
      <internalNodes>
        0 -1 151982 4.9202181398868561e-03</internalNodes>
      <leafValues>
        -8.3975774049758911e-01 8.3975774049758911e-01</leafValues></_>
    <_>
      <internalNodes>
        0 -1 138771 -7.7378405258059502e-03</internalNodes>
      <leafValues>
        8.0784165859222412e-01 -8.0784165859222412e-01</leafValues></_>
    <_>
      <internalNodes>
        0 -1 91502 -4.3711313046514988e-03</internalNodes>
      <leafValues>
        7.8168362379074097e-01 -7.8168362379074097e-01</leafValues></_>
    <_>
      <internalNodes>
        0 -1 143246 -3.9140824228525162e-03</internalNodes>
      <leafValues>
        -7.1447104215621948e-01 7.1447104215621948e-01</leafValues></_>
    <_>
      <internalNodes>
        0 -1 236311 -1.3760707806795835e-03</internalNodes>
      <leafValues>
        7.1914643049240112e-01 -7.1914643049240112e-01</leafValues></_>
    <_>
      <internalNodes>
        0 -1 231105 6.0677714645862579e-03</internalNodes>
      <leafValues>
        -6.7558085918426514e-01 6.7558085918426514e-01</leafValues></_>
    <_>
      <internalNodes>
        0 -1 221967 -3.4037331352010369e-04</internalNodes>
      <leafValues>
        6.6512602567672729e-01 -6.6512602567672729e-01</leafValues></_>
    <_>
      <internalNodes>
        0 -1 228899 2.4123443290591240e-04</internalNodes>
      <leafValues>
        -6.9202697277069092e-01 6.9202697277069092e-01</leafValues></_>
    <_>
      <internalNodes>
        0 -1 179438 -8.3612697198987007e-03</internalNodes>
      <leafValues>
        6.3620907068252563e-01 -6.3620907068252563e-01</leafValues></_>
    <_>
      <internalNodes>
        0 -1 106098 -3.5980441607534885e-03</internalNodes>
      <leafValues>
        6.5149796009063721e-01 -6.5149796009063721e-01</leafValues></_>
    <_>
      <internalNodes>
        0 -1 105472 2.6826173067092896e-02</internalNodes>
      <leafValues>
        -6.6839963197708130e-01 6.6839963197708130e-01</leafValues></_></weakClassifiers></stage4>
</opencv_storage>
