<?xml version="1.0"?>
<opencv_storage>
<stage3>
  <maxWeakCount>11</maxWeakCount>
  <stageThreshold>-3.0868351459503174e+00</stageThreshold>
  <weakClassifiers>
    <_>
      <internalNodes>
        0 -1 222105 1.3488779775798321e-02</internalNodes>
      <leafValues>
        -1.0131510496139526e+00 1.0131510496139526e+00</leafValues></_>
    <_>
      <internalNodes>
        0 -1 149731 -8.0569200217723846e-03</internalNodes>
      <leafValues>
        1.0750949382781982e+00 -1.0750949382781982e+00</leafValues></_>
    <_>
      <internalNodes>
        0 -1 234640 -1.4587135985493660e-02</internalNodes>
      <leafValues>
        9.3335133790969849e-01 -9.3335133790969849e-01</leafValues></_>
    <_>
      <internalNodes>
        0 -1 219555 -9.6966326236724854e-03</internalNodes>
      <leafValues>
        8.7039518356323242e-01 -8.7039518356323242e-01</leafValues></_>
    <_>
      <internalNodes>
        0 -1 244235 9.0211926726624370e-04</internalNodes>
      <leafValues>
        -8.0693870782852173e-01 8.0693870782852173e-01</leafValues></_>
    <_>
      <internalNodes>
        0 -1 211956 -3.9025961887091398e-03</internalNodes>
      <leafValues>
        7.6911526918411255e-01 -7.6911526918411255e-01</leafValues></_>
    <_>
      <internalNodes>
        0 -1 138007 -3.8761119358241558e-03</internalNodes>
      <leafValues>
        7.9432934522628784e-01 -7.9432934522628784e-01</leafValues></_>
    <_>
      <internalNodes>
        0 -1 201800 -9.9284574389457703e-03</internalNodes>
      <leafValues>
        7.9666739702224731e-01 -7.9666739702224731e-01</leafValues></_>
    <_>
      <internalNodes>
        0 -1 151944 -2.1640068734996021e-04</internalNodes>
      <leafValues>
        8.0699813365936279e-01 -8.0699813365936279e-01</leafValues></_>
    <_>
      <internalNodes>
        0 -1 50980 7.3378188535571098e-03</internalNodes>
      <leafValues>
        -7.6600396633148193e-01 7.6600396633148193e-01</leafValues></_>
    <_>
      <internalNodes>
        0 -1 190271 1.2802926823496819e-02</internalNodes>
      <leafValues>
        -7.8266859054565430e-01 7.8266859054565430e-01</leafValues></_></weakClassifiers></stage3>
</opencv_storage>
